svm_type c_svc
kernel_type rbf
gamma 8
nr_class 5
total_sv 76
rho 32.4547 -18.9212 25.8483 -0.00708008 -36.3975 10.6331 -19.1106 33.0874 15.4087 -16.1895
label 4 2 1 5 3
nr_sv 20 20 18 8 10
SV
2841.928061005553 8192 0 0 1:0.69677 
8192 8192 8192 8192 1:0.73959 
8192 8192 0 0 1:0.72143 
8192 0 4257.178958665646 0 1:0.67017 
8192 3.406480274160088 0 0 1:0.67814 
8192 8192 0 0 1:0.68618 
8192 8192 0 0 1:0.68219 
8192 8192 0 0 1:0.71658 
0 8192 0 0 1:0.70192 
8192 0 0 0 1:0.67395 
8192 0 0 0 1:0.67116 
0 8192 0 0 1:0.70912 
8192 8192 0 0 1:0.72588 
8192 8192 0 0 1:0.72016 
8192 8192 0 0 1:0.69305 
8192 8192 897.3341139366603 0 1:0.72849 
8192 8192 0 0 1:0.68855 
0 8192 0 0 1:0.70549 
8192 0 0 0 1:0.67116 
8192 8192 0 0 1:0.72533 
-8192 8192 8192 7511.566384802539 1:0.73628 
-8192 8192 0 0 1:0.68974 
-759.8626656397449 0 3027.907675670323 -0 1:0.65185 
-2082.065395365806 8192 8192 8192 1:0.75473 
-8192 0 0 0 1:0.67552 
-8192 8192 0 0 1:0.68487 
-8192 8192 0 0 1:0.68627 
-8192 8192 0 0 1:0.72551 
-8192 8192 465.9671282700646 0 1:0.73496 
-8192 8192 0 0 1:0.69766 
-8192 0 0 0 1:0.67485 
-0 4401.932358580467 8192 8192 1:0.77438 
-8192 8192 0 0 1:0.69883 
-8192 8192 0 0 1:0.69433 
-8192 8192 0 0 1:0.7033 
-8192 0 0 0 1:0.65335 
-8192 2884.834513425773 0 0 1:0.67816 
-8192 8192 0 0 1:0.72537 
-0 0 8192 8192 1:0.78176 
-8192 8192 0 0 1:0.72231 
-8192 -8192 0 0 1:0.70557 
-8192 -0 0 0 1:0.72058 
-8192 -8192 0 0 1:0.69143 
-8192 -8192 0 0 1:0.70315 
-8192 -8192 0 0 1:0.68862 
-8192 -8192 0 0 1:0.71212 
-8192 -8192 0 0 1:0.71244 
-8192 -7286.766872006245 0 0 1:0.71905 
-0 -8192 2229.965532349349 3468.670133497654 1:0.74229 
-914.2787374104024 -8192 8192 8192 1:0.76112 
-8192 -8192 4810.313446495215 0 1:0.67243 
-8192 -8192 0 0 1:0.71763 
-8192 -0 0 0 1:0.72818 
-8192 -8192 0 0 1:0.71638 
-7281.127742863767 -0 0 0 1:0.7284 
-8192 -8192 0 0 1:0.69423 
-8192 -0 0 0 1:0.72687 
-0 -8192 8192 8192 1:0.75191 
-0 -0 -0 8192 1:0.82447 
-0 -0 -0 8192 1:0.82729 
-0 -3493.874803940395 -0 8192 1:0.78462 
-0 -0 -0 7504.495116931239 1:0.84887 
-5154.513072602305 -8192 -8192 8192 1:0.76224 
-8192 -8192 -8192 117.1939590113385 1:0.68883 
-0 -8192 -7040.278978844568 8192 1:0.76772 
-0 -8192 -0 8192 1:0.77762 
-0 -8192 -3468.670133497653 -0 1:0.77246 
-0 -0 -0 -2414.262465859549 1:0.79699 
-0 -0 -0 -8192 1:0.81107 
-0 -0 -0 -8192 1:0.81325 
-8192 -8192 -8192 -8192 1:0.74082 
-0 -0 -0 -8192 1:0.80025 
-0 -7295.175100984391 -0 -0 1:0.77592 
-0 -0 -0 -8192 1:0.80365 
-0 -216.391283818146 -0 -8192 1:0.84286 
-0 -8192 -8192 -5207.426610083023 1:0.75993 
