svm_type c_svc
kernel_type rbf
gamma 0.5
nr_class 5
total_sv 91
rho 1.66161 0.0515976 0.157829 0.248497 -0.0512085 -1.24179 0.531609 0.0335007 3.31113 0.349747
label 1 2 3 4 5
nr_sv 20 20 19 20 12
SV
256 228.0996861731586 256 48.89565532598001 1:0.7284 
256 0 256 0 1:0.67243 
256 0 256 0 1:0.69423 
256 0 256 0 1:0.69143 
256 0 256 0 1:0.70557 
256 0 256 0 1:0.72058 
256 0 256 0 1:0.71212 
256 256 10.16136642446259 256 1:0.74229 
256 0 256 0 1:0.72687 
256 0 256 0 1:0.70315 
256 0 256 0 1:0.71244 
0 256 0 256 1:0.76112 
256 0 256 0 1:0.68862 
196.4293763070488 256 0 256 1:0.75191 
256 0 256 0 1:0.71763 
256 0 256 0 1:0.72818 
256 256 256 256 1:0.72975 
256 256 256 256 1:0.73309 
256 0 256 0 1:0.71905 
256 0 256 0 1:0.71638 
-256 256 256 256 1:0.75473 
-256 0 256 0 1:0.68627 
-256 0 256 0 1:0.69883 
-256 0 256 0 1:0.69766 
-256 0 256 0 1:0.72231 
-256 0 256 0 1:0.68487 
-256 256 256 256 1:0.73496 
-256 256 256 256 1:0.73628 
-256 0 256 0 1:0.67485 
-256 178.9824470256417 256 0 1:0.72537 
-256 0 256 0 1:0.7033 
-256 0 256 0 1:0.67816 
-256 0 256 0 1:0.67552 
-256 256 256 206.8633068944458 1:0.72551 
-256 256 256 256 1:0.77438 
-196.4293763070488 0 256 0 1:0.65335 
-0 0 256 0 1:0.65185 
-256 0 256 0 1:0.68974 
-256 256 98.31697279543299 256 1:0.78176 
-256 0 256 0 1:0.69433 
-0 -0 0 256 1:0.79592 
-0 -0 0 256 1:0.78907 
-0 -0 0 256 1:0.78991 
-256 -256 43.8927947764027 0 1:0.77749 
-0 -0 0 256 1:0.81107 
-228.0996861731586 -256 0 0 1:0.77924 
-256 -256 256 0 1:0.75993 
-0 -0 0 256 1:0.79699 
-0 -0 0 256 1:0.78916 
-0 -178.9824470256417 0 0 1:0.78207 
-0 -0 0 96.76395901759793 1:0.78584 
-0 -0 0 256 1:0.78714 
-0 -0 0 256 1:0.84286 
-0 -0 0 256 1:0.80025 
-256 -256 256 0 1:0.74082 
-0 -0 0 256 1:0.81325 
-256 -256 256 0 1:0.77246 
-256 -256 256 0 1:0.77592 
-0 -0 0 256 1:0.80365 
-256 -256 -0 0 1:0.68219 
-0 -256 -0 0 1:0.67116 
-256 -256 -0 0 1:0.69677 
-256 -256 -0 0 1:0.68618 
-256 -256 -0 0 1:0.67395 
-256 -256 -0 0 1:0.67814 
-256 -256 -43.8927947764027 188.408104715797 1:0.72143 
-256 -256 -256 256 1:0.72849 
-10.16136642446256 -256 -0 0 1:0.67116 
-256 -256 -0 0 1:0.70192 
-256 -256 -0 0 1:0.70912 
-0 -98.316972795433 -0 0 1:0.67017 
-256 -256 -256 256 1:0.72588 
-256 -256 -0 0 1:0.70549 
-256 -256 -256 256 1:0.72533 
-256 -256 -0 0 1:0.68855 
-256 -256 -0 0 1:0.71658 
-256 -256 -256 256 1:0.73959 
-256 -256 -0 0 1:0.69305 
-256 -256 -0 0 1:0.72016 
-256 -256 -256 -256 1:0.76224 
-0 -0 -256 -0 1:0.86604 
-256 -256 -256 -256 1:0.77762 
-256 -256 -256 -188.408104715797 1:0.78462 
-48.89565532598001 -206.8633068944458 -256 -0 1:0.82447 
-256 -256 -256 -256 1:0.76772 
-256 -256 -256 -256 1:0.68883 
-0 -0 -256 -0 1:0.86643 
-0 -0 -96.76395901759795 -0 1:0.87133 
-0 -0 -256 -0 1:0.86286 
-0 -0 -256 -0 1:0.84887 
-0 -0 -256 -0 1:0.82729 
